SNNS network definition file V1.4-3D
generated at Mon Apr  3 12:46:19 2000

network name : pb
source files :
no. of units : 26
no. of connections : 120
no. of unit types : 0
no. of site types : 0


learning function : Std_Backpropagation
update function   : Topological_Order


unit default section :

act      | bias     | st | subnet | layer | act func     | out func
---------|----------|----|--------|-------|--------------|-------------
 0.00000 |  0.00000 | h  |      0 |     1 | Act_Logistic | Out_Identity 
---------|----------|----|--------|-------|--------------|-------------


unit definition section :

no. | typeName | unitName | act      | bias     | st | position | act func | out func | sites
----|----------|----------|----------|----------|----|----------|----------|----------|-------
  1 |          |          | 48.00000 | -0.01472 | i  |  2, 2,-18024 | Act_TanH |          | 
  2 |          |          | 567.00000 |  0.29714 | i  |  2, 3,-18024 | Act_TanH |          | 
  3 |          |          | 927.00000 |  0.88989 | i  |  2, 4,-18024 | Act_TanH |          | 
  4 |          |          | 443.00000 |  1.21146 | i  |  2, 5,-18024 | Act_TanH |          | 
  5 |          |          | -1.00000 | -1.38761 | h  |  5, 2,-18024 | Act_TanH |          | 
  6 |          |          | -1.00000 |  1.22027 | h  |  5, 3,-18024 | Act_TanH |          | 
  7 |          |          | -1.00000 |  0.27866 | h  |  5, 4,-18024 | Act_TanH |          | 
  8 |          |          |  1.00000 |  0.28595 | h  |  5, 5,-18024 | Act_TanH |          | 
  9 |          |          |  1.00000 |  0.74226 | h  |  5, 6,-18024 | Act_TanH |          | 
 10 |          |          |  1.00000 |  0.21579 | h  |  5, 7,-18024 | Act_TanH |          | 
 11 |          |          |  0.76044 | -1.28315 | h  |  8, 2,-18024 | Act_TanH |          | 
 12 |          |          | -0.99924 | -2.34305 | h  |  8, 3,-18024 | Act_TanH |          | 
 13 |          |          |  0.99943 |  2.36292 | h  |  8, 4,-18024 | Act_TanH |          | 
 14 |          |          | -0.99986 | -0.41118 | h  |  8, 5,-18024 | Act_TanH |          | 
 15 |          |          |  0.92500 | -0.39265 | h  |  8, 6,-18024 | Act_TanH |          | 
 16 |          |          | -0.99909 |  1.03932 | h  |  8, 7,-18024 | Act_TanH |          | 
 17 |          |          | -0.22462 | -0.52785 | o  | 11, 2,-18024 | Act_TanH |          | 
 18 |          |          | -0.17027 | -0.16464 | o  | 11, 3,-18024 | Act_TanH |          | 
 19 |          |          | -0.33955 | -0.51065 | o  | 11, 4,-18024 | Act_TanH |          | 
 20 |          |          | -0.44616 | -0.55819 | o  | 11, 5,-18024 | Act_TanH |          | 
 21 |          |          | -0.56898 | -1.08959 | o  | 11, 6,-18024 | Act_TanH |          | 
 22 |          |          | -0.55396 | -1.33066 | o  | 11, 7,-18024 | Act_TanH |          | 
 23 |          |          | -0.54985 | -0.19918 | o  | 11, 8,-18024 | Act_TanH |          | 
 24 |          |          | -0.62471 | -0.19806 | o  | 11, 9,-18024 | Act_TanH |          | 
 25 |          |          | -0.60380 |  0.05959 | o  | 11,10,-18024 | Act_TanH |          | 
 26 |          |          | -0.58551 | -0.68699 | o  | 11,11,-18024 | Act_TanH |          | 
----|----------|----------|----------|----------|----|----------|----------|----------|-------


connection definition section :

target | site | source:weight
-------|------|---------------------------------------------------------------------------------------------------------------------
     5 |      |  1:-0.40849,  2: 0.05074,  3:-2.57372,  4: 2.63905
     6 |      |  1:-0.50093,  2:-2.24013,  3:-0.52094,  4:-2.14093
     7 |      |  1: 0.70984,  2: 0.58515,  3:-1.88762,  4: 1.17092
     8 |      |  1:-0.39646,  2: 1.77692,  3: 0.40811,  4: 2.79374
     9 |      |  1: 1.15358,  2:-0.69947,  3: 0.43109,  4: 2.33515
    10 |      |  1:-0.02212,  2: 1.10204,  3: 2.88920,  4: 1.94921
    11 |      |  5: 0.04711,  6: 0.57280,  7:-1.08379,  8: 0.07539,  9: 0.78799, 10: 0.95313
    12 |      |  5:-0.19574,  6: 0.56289,  7: 0.52354,  8:-1.27793,  9: 0.26465, 10: 0.30722
    13 |      |  5:-1.09508,  6:-0.47677,  7: 0.18930,  8:-0.12654,  9:-0.16519, 10: 0.63108
    14 |      |  5: 1.68775,  6: 0.14821,  7: 2.55684,  8:-0.31137,  9: 0.31713, 10: 0.00116
    15 |      |  5:-0.58975,  6:-0.43871,  7:-0.80414,  8:-0.22817,  9:-0.65969, 10: 1.07047
    16 |      |  5: 1.21448,  6: 0.55618,  7: 1.09296,  8:-0.60812,  9:-0.45336, 10:-0.96063
    17 |      | 11: 0.30995, 12:-0.33170, 13:-0.22209, 14:-0.96609, 15:-1.50723, 16:-0.38272
    18 |      | 11: 0.34016, 12: 0.40981, 13: 0.17884, 14: 0.28809, 15: 0.53672, 16: 0.24385
    19 |      | 11: 0.20680, 12:-0.10429, 13:-0.05551, 14: 0.55772, 15: 0.96527, 16: 0.38450
    20 |      | 11:-0.75943, 12: 0.03749, 13:-0.08563, 14: 0.09306, 15: 0.38478, 16:-0.51643
    21 |      | 11: 0.04558, 12:-0.05210, 13: 0.66806, 14: 0.28101, 15: 0.09537, 16: 0.11818
    22 |      | 11: 0.14952, 12:-0.25580, 13: 0.80889, 14: 0.55565, 15: 0.36917, 16: 0.25729
    23 |      | 11: 0.04572, 12:-0.09831, 13:-0.53242, 14:-0.07822, 15:-0.14342, 16:-0.03461
    24 |      | 11:-0.10229, 12: 0.39596, 13:-0.05430, 14:-0.14624, 15:-0.35393, 16:-0.17439
    25 |      | 11:-0.05177, 12: 0.17249, 13:-0.53270, 14: 0.01936, 15:-0.03163, 16:-0.03409
    26 |      | 11:-0.03264, 12:-0.19444, 13:-0.18127, 14:-0.39957, 15:-0.01638, 16: 0.35682
-------|------|---------------------------------------------------------------------------------------------------------------------
